/*!
 * The following copyright notice may not be removed under any circumstances.
 * 
 * Copyright:
 * (c) 1999 Nick Curtis. All Rights Reserved. Generated by Fontographer 3.52
 */
Cufon.registerFont({"w":846,"face":{"font-family":"JungleFever","font-weight":400,"font-stretch":"normal","units-per-em":"1000","panose-1":"0 0 0 0 0 0 0 0 0 0","ascent":"800","descent":"-200","bbox":"-89 -958 1174 225","underline-thickness":"50","underline-position":"-55","unicode-range":"U+0020-U+2122"},"glyphs":{" ":{"w":349},"\u00a0":{"w":349},"!":{"d":"179,22r-164,-103r134,-151r163,119xm79,-247r-61,-400r268,-62r2,382","w":327},"\"":{"d":"294,-738v-11,79,-97,124,-163,154v-38,17,-76,27,-116,40r76,-271r215,0xm544,-738v-11,79,-97,124,-163,154v-38,17,-76,27,-116,40r76,-271r215,0","w":557},"#":{"w":500},"$":{"d":"377,-237v0,88,-60,130,-123,162r0,75r-140,0r0,-103r-96,-53v66,-17,123,-54,102,-130v-20,-71,-98,-98,-98,-185v0,-55,37,-91,68,-121v7,-6,15,-11,24,-16r0,-101r140,0r0,94r104,63v-43,27,-96,66,-74,135v3,9,8,17,15,24v39,44,78,88,78,156","w":395},"%":{"w":500},"&":{"d":"612,-626v11,8,19,35,7,48r-116,114r81,103r175,-105r37,147r-133,97r82,137r-117,126r-151,-154r-54,43v-41,33,-74,74,-142,79v-14,0,-29,-4,-39,-9v-89,-54,-146,-136,-204,-218v38,-92,93,-170,166,-229r-65,-147v72,-53,151,-115,258,-115r120,0xm242,-221v31,17,79,21,125,16r-89,-133xm344,-606v7,35,20,61,42,85v32,-8,53,-28,73,-51v-34,-17,-72,-27,-115,-34","w":833},"'":{"d":"294,-738v-11,79,-97,124,-163,154v-38,17,-76,27,-116,40r76,-271r215,0","w":320},"(":{"d":"266,142v-147,-47,-252,-244,-252,-448v0,-200,99,-390,237,-444r46,175v-89,55,-95,238,-76,373v9,63,29,145,77,165","w":312},")":{"d":"65,-750v138,54,237,245,237,444v0,204,-105,401,-252,447r-32,-178v48,-20,67,-103,77,-165v17,-107,8,-231,-25,-312v-12,-32,-29,-52,-51,-61","w":312},"*":{"d":"175,-648r53,33r-47,48r-39,-41r15,51r-68,0r11,-52r-34,42r-48,-48r47,-35r-57,12r0,-68r58,11r-48,-35r48,-47r32,43r-9,-53r68,0r-11,52r35,-42r47,47r-52,35r62,-11r0,68","w":445},"+":{"d":"291,-274r0,162r-136,0r0,-162r-162,0r0,-136r162,0r0,-162r136,0r0,162r162,0r0,136r-162,0","w":445},",":{"d":"294,-62v-11,79,-97,123,-163,153v-38,17,-76,27,-116,40r76,-270r215,0","w":320},"-":{"d":"11,-274r0,-136r230,0r0,136r-230,0","w":253},".":{"d":"179,22r-164,-103r134,-151r163,119","w":327},"\/":{"d":"114,200r-90,0r398,-1000r89,0","w":536},"0":{"d":"678,-104v-58,68,-149,104,-278,104v-129,0,-220,-36,-278,-104v-113,-132,-113,-369,0,-501v58,-68,149,-104,278,-104v129,0,220,36,278,104v112,132,112,369,0,501xm526,-372v0,-68,-57,-128,-125,-128v-68,0,-126,60,-126,128v0,68,58,128,126,128v68,0,125,-60,125,-128","w":800},"1":{"d":"212,0r-1,-479r-185,-28r-3,-25v74,-28,145,-56,215,-86v70,-30,137,-60,201,-91r41,14r10,695r-278,0","w":513},"2":{"d":"516,-650v52,60,74,118,56,205v-4,17,-11,34,-20,49r-118,212v81,-6,162,-28,242,-48r-114,232r-530,0r212,-302v-65,-17,-116,-43,-154,-80v-47,-45,-70,-92,-53,-158v16,-64,51,-106,101,-132v108,-57,302,-66,378,22xm373,-466v0,-45,-39,-82,-84,-82v-45,0,-84,37,-84,82v0,45,39,81,84,81v45,0,84,-36,84,-81","w":708},"3":{"d":"150,-184v-2,-73,-71,-104,-121,-134r0,-44v73,-35,120,-74,129,-156v4,-33,-7,-58,-28,-77v-29,-27,-66,-48,-101,-70r182,-63v75,25,136,53,181,86v60,44,84,88,60,160v-21,63,-62,109,-106,153v57,40,116,86,105,182v-12,104,-137,134,-226,168r-203,-72v34,-20,67,-42,95,-66v22,-19,33,-41,33,-67","w":483},"4":{"d":"753,-132r-94,-3r0,135r-244,0r8,-128r-368,5r-19,-66r429,-520r209,0r-18,385r100,1xm438,-524v-67,48,-122,109,-170,175r161,12","w":792},"5":{"d":"39,-357r4,-352r469,0v-5,49,-29,87,-74,113v-45,26,-107,44,-184,51r-8,105v71,11,132,31,182,61v50,30,76,79,78,146v3,81,-23,138,-73,174v-70,51,-206,71,-320,55v-34,-6,-64,-18,-89,-35r0,-29v95,-21,204,-49,204,-161v0,-82,-96,-125,-189,-128","w":536},"6":{"d":"337,13v-192,0,-313,-114,-306,-302v3,-91,38,-171,104,-240v66,-69,147,-131,244,-187r260,74v-74,54,-145,111,-200,179v115,48,219,143,180,302v-30,121,-119,174,-282,174xm432,-276v0,-59,-50,-110,-108,-110v-58,0,-108,51,-108,110v0,58,51,109,108,109v57,0,108,-51,108,-109","w":669},"7":{"d":"409,0r-312,0v58,-177,132,-345,217,-511r-284,46r4,-244r586,0v-101,208,-177,441,-211,709","w":650},"8":{"d":"601,-204v1,128,-146,217,-286,217v-140,0,-287,-89,-286,-217v1,-74,45,-128,94,-162v-40,-34,-75,-79,-76,-146v-1,-123,140,-211,274,-211v136,0,275,87,275,211v-1,68,-40,118,-83,151v47,34,87,85,88,157xm375,-155v0,-33,-29,-59,-62,-59v-32,0,-61,26,-61,59v0,33,29,59,61,59v33,0,62,-26,62,-59xm391,-473v0,-42,-39,-77,-82,-77v-43,0,-82,35,-82,77v0,41,39,77,82,77v43,0,82,-36,82,-77","w":629},"9":{"d":"332,-716v192,0,314,115,307,303v-3,91,-38,170,-104,239v-66,69,-147,132,-244,187r-131,-35r-130,-38v75,-54,146,-112,200,-179v-114,-48,-218,-143,-179,-301v29,-121,118,-176,281,-176xm467,-433v0,-58,-50,-109,-107,-109v-58,0,-108,51,-108,109v0,59,49,110,108,110v58,0,107,-51,107,-110","w":669},":":{"d":"179,22r-164,-103r134,-151r163,119xm179,-258r-164,-103r134,-151r163,119","w":327},";":{"d":"294,-62v-11,79,-97,123,-163,153v-38,17,-76,27,-116,40r76,-270r215,0xm179,-258r-164,-103r134,-151r163,119","w":320},"<":{"d":"376,-65r-359,-207r0,-80r359,-207r61,106r-244,141r244,141","w":445},"=":{"d":"-7,-174r0,-136r460,0r0,136r-460,0xm-7,-354r0,-136r460,0r0,136r-460,0","w":445},">":{"d":"72,-65r-61,-106r244,-141r-244,-141r61,-106r359,207r0,80","w":445},"?":{"d":"354,-562v0,76,-82,141,-41,225v12,26,32,47,49,69v-42,23,-80,53,-136,60r131,95r-132,135r-165,-103r109,-122v-87,-1,-149,-41,-152,-125v-3,-71,63,-101,63,-168v0,-48,-29,-76,-52,-108r191,-105v54,26,103,56,127,111v5,11,8,23,8,36","w":379},"@":{"w":500},"A":{"d":"599,0r-46,-113r-236,0r-41,113r-265,0r280,-709r258,0r335,709r-285,0xm427,-416r-41,112r88,0","w":888,"k":{"y":105,"w":159,"v":203,"s":40,"q":106,"o":92,"j":66,"g":109,"c":95,"Y":103,"W":132,"V":191,"T":118,"S":18,"Q":62,"O":70,"G":102,"C":95}},"B":{"d":"618,-275v26,30,72,67,50,119v-31,71,-98,132,-178,152v-43,11,-98,4,-148,4r-329,0v5,-119,8,-237,8,-355v0,-118,-3,-236,-8,-354r424,0v46,3,67,19,99,45v39,32,74,77,99,118v24,40,27,52,-1,90r-86,116xm299,-121v49,-12,93,-19,90,-79v-2,-42,-56,-54,-96,-66xm288,-398v46,-8,100,-16,96,-72v-4,-46,-53,-58,-94,-69","w":692,"k":{"Y":51,"W":36,"V":36,"G":25,"C":29,"A":50}},"C":{"d":"444,15v-119,-19,-217,-65,-298,-134v-155,-132,-160,-339,-8,-475v75,-67,168,-114,281,-137r124,206v-55,11,-100,32,-135,61v-70,56,-69,140,2,196v36,29,80,50,135,61","w":553,"k":{"Y":22,"A":48}},"D":{"d":"309,-709v250,2,410,124,410,366v0,189,-119,343,-315,343r-383,0v5,-119,7,-237,7,-355v0,-118,-2,-236,-7,-354r288,0xm459,-343v-33,-72,-77,-108,-156,-118v-1,39,-1,78,-1,117v0,39,0,78,1,117v78,-8,126,-53,156,-116","w":722,"k":{"Y":73,"W":43,"V":33,"A":81}},"E":{"d":"297,-265r2,84v86,5,168,4,246,-9r-42,190r-494,0v3,-59,4,-119,5,-178v1,-59,2,-118,2,-177v0,-59,-1,-118,-2,-177v-1,-59,-3,-118,-5,-177r497,0r42,189v-79,-13,-163,-15,-249,-8r-1,83v86,5,168,4,246,-9r-42,189r-205,0","w":593},"F":{"d":"585,-503v-84,-17,-182,-24,-284,-23r-2,92r229,0r32,226v-78,-15,-166,-25,-260,-25r6,233r-295,0v2,-59,4,-119,5,-178v1,-59,2,-118,2,-177v0,-59,-1,-118,-2,-177v-1,-59,-3,-118,-5,-177r542,0","w":631},"G":{"d":"725,-366v-20,115,-15,253,3,366r-368,0v-73,2,-118,-15,-157,-47v-56,-47,-107,-96,-151,-157v-45,-64,-58,-147,-20,-215v94,-168,239,-264,453,-324r130,191v-112,45,-224,92,-301,173v-12,13,-22,34,-10,52v35,54,83,94,152,94r2,-208","w":790},"H":{"d":"445,-482r-6,-227r295,0v-2,59,-4,118,-5,177v-1,59,-2,118,-2,177v0,59,0,118,1,177v1,59,3,119,6,178r-295,0r6,-231r-141,0r6,231r-295,0v3,-59,4,-119,5,-178v1,-59,2,-118,2,-177v0,-59,-1,-118,-2,-177v-1,-59,-3,-118,-5,-177r295,0r-6,227r141,0","w":791},"I":{"d":"15,0v2,-59,4,-119,5,-178v1,-59,2,-118,2,-177v0,-59,-1,-118,-2,-177v-1,-59,-3,-118,-5,-177r295,0v-2,59,-4,118,-5,177v-1,59,-2,118,-2,177v0,59,0,118,1,177v1,59,3,119,6,178r-295,0","w":325},"J":{"d":"538,-709r-6,291v-1,82,1,163,4,243v-36,74,-81,136,-149,175r-154,0v-25,-1,-51,-1,-77,-2v-26,-1,-51,-3,-77,-6r-74,-268v56,21,118,34,194,30v49,-2,70,-45,65,-106v-2,-38,-4,-76,-8,-114r-23,-243r305,0","w":587},"K":{"d":"293,-239r7,239r-296,0v5,-59,8,-119,10,-178v2,-59,4,-118,4,-177v0,-59,-2,-118,-4,-177v-2,-59,-5,-118,-10,-177r296,0v-2,49,-3,98,-4,147r-3,148r127,-295r292,57r-178,307r220,288r-292,57","w":825},"L":{"d":"299,-325r1,75v98,2,178,-8,260,-23r-49,273r-505,0v5,-59,8,-119,10,-178v2,-59,3,-118,3,-177v0,-59,-1,-118,-3,-177v-2,-59,-6,-118,-10,-177r302,0v-3,89,-6,163,-8,220v-2,57,-2,112,-1,164","w":610},"M":{"d":"876,-709v21,254,60,491,124,709r-299,0r-51,-245r-160,245r-158,-254r-65,254r-268,0r175,-709r201,0r141,318v60,-99,116,-206,166,-318r194,0","w":1009},"N":{"d":"788,-709v-21,234,-8,471,0,709r-195,0r-317,-326r-2,244v0,27,2,55,3,82r-271,0v30,-222,28,-485,0,-709r203,0r295,264r-12,-264r296,0","w":831},"O":{"d":"778,-355v0,218,-161,355,-384,355v-223,0,-385,-136,-385,-355v0,-217,162,-354,385,-354v223,0,384,136,384,354xm508,-362v0,-61,-53,-114,-114,-114v-61,0,-114,53,-114,114v0,61,53,114,114,114v61,0,114,-53,114,-114","w":787},"P":{"d":"8,0v20,-236,21,-472,0,-709r295,0v80,3,149,-1,193,28v60,40,113,88,147,150v13,23,20,51,20,85v0,102,-48,180,-95,237v-21,26,-55,43,-99,46v-62,5,-119,2,-176,-3r4,84v1,28,3,55,6,82r-295,0xm289,-317v67,-20,115,-64,139,-129v8,-23,-6,-43,-18,-54v-35,-32,-71,-55,-116,-74v-2,43,-3,85,-4,128v-1,43,-2,86,-1,129","w":721},"Q":{"d":"771,-355v-1,126,-52,218,-126,276r98,71r-161,141r-98,-142v-267,49,-482,-95,-482,-346v0,-217,162,-354,385,-354v223,0,385,136,384,354xm501,-362v0,-61,-53,-114,-114,-114v-61,0,-114,53,-114,114v0,61,53,114,114,114v61,0,114,-53,114,-114"},"R":{"d":"277,-234r-12,234r-259,0v3,-37,6,-76,8,-117v2,-41,2,-82,2,-125r-2,-117v-2,-61,-4,-121,-8,-181v-4,-60,-8,-116,-13,-169r334,1v14,0,28,0,43,1v58,3,139,2,171,23v68,44,131,88,154,169v25,90,-44,160,-86,211v-13,15,-30,26,-50,34v35,91,89,184,156,248r-249,36v-70,-76,-128,-164,-189,-248xm278,-530r-5,154r0,55v62,-17,107,-58,132,-115v7,-18,-8,-25,-17,-35v-31,-29,-69,-41,-110,-59","w":795},"S":{"d":"456,-240v26,161,-100,226,-219,271r-236,-129v45,-13,79,-31,103,-51v59,-49,23,-142,-12,-185v-38,-46,-85,-87,-85,-166v0,-56,31,-96,60,-129v41,-46,99,-72,167,-95r200,121v-48,33,-102,61,-102,135v0,29,12,52,27,68v43,47,86,95,97,160","w":505},"T":{"d":"174,-476v-63,3,-122,0,-174,16r20,-249r624,0r-52,244v-50,-1,-94,-13,-145,-13v-1,46,-1,93,-1,141r4,241r3,96r-285,0v1,-32,3,-64,4,-97r3,-241v0,-47,0,-93,-1,-138","w":709},"U":{"d":"8,-75v41,-196,42,-429,15,-634r290,0v-4,160,-2,322,-40,448v41,39,107,66,189,56v-4,-54,-7,-109,-8,-165v-1,-56,-3,-113,-1,-170r7,-169r286,0v-2,59,-4,118,-5,177v-1,59,-2,118,-2,177v0,59,0,118,1,177v1,59,3,119,6,178r-263,0r-12,-98r-60,80v-7,8,-13,17,-20,24v-150,1,-274,-32,-383,-81","w":811},"V":{"d":"827,-645v-90,207,-168,421,-233,645r-292,0r-142,-310v-50,-103,-103,-205,-159,-308r274,-91r161,346r113,-377","w":908},"W":{"d":"920,0r-187,0r-159,-288r-150,288r-211,0v-31,-105,-63,-211,-98,-317v-35,-106,-73,-213,-114,-320r283,-72r86,316r204,-316r190,285r92,-285r262,42","w":1229},"X":{"d":"466,0r-86,-115r-86,115r-299,-58r115,-138r109,-135r-217,-291r266,-87r54,81r58,84r58,-84r54,-81r266,87r-217,291r109,135r115,138","w":848},"Y":{"d":"403,0r-291,0r104,-236r-215,-473r269,0r87,214r81,-214r244,0","w":749},"Z":{"d":"458,-253r255,-13r-68,266r-634,0r269,-464r-269,23r71,-268r651,0","w":794},"[":{"d":"15,200r0,-1000r290,0r0,74r-102,0r0,852r102,0r0,74r-290,0","w":319},"\\":{"d":"416,200r-397,-1000r89,0r398,1000r-90,0","w":536},"]":{"d":"319,200r-290,0r0,-74r102,0r0,-852r-102,0r0,-74r290,0r0,1000","w":319},"^":{"d":"401,-359r-141,-244r-141,244r-106,-61r207,-359r80,0r207,359","w":515},"_":{"d":"-14,196r0,-96r500,0r0,96r-500,0","w":465},"`":{"d":"197,-636v-79,-33,-143,-85,-194,-150r153,-56r159,182","w":331},"a":{"d":"527,0r-40,-99r-208,0r-36,99r-233,0r246,-624r227,0r295,624r-251,0xm376,-366r-36,98r77,0"},"b":{"d":"498,-284v34,38,95,68,95,131v-11,42,-31,67,-63,95v-36,32,-69,58,-126,58r-393,0v10,-204,8,-420,0,-624r374,0v66,5,104,53,138,92v22,25,43,59,51,87v-5,48,-51,87,-75,123r-17,23xm263,-106v43,-12,81,-16,79,-70v-2,-37,-48,-49,-84,-58xm253,-350v41,-8,89,-15,85,-64v-4,-41,-46,-50,-83,-60","w":641},"c":{"d":"313,-322v0,79,88,125,167,140r-89,195v-105,-17,-192,-58,-263,-118v-136,-116,-139,-299,-6,-419v66,-60,148,-100,247,-119r109,181v-48,10,-87,28,-118,54v-31,26,-47,54,-47,86","w":502},"d":{"d":"567,-502v39,52,66,117,66,201v0,165,-106,301,-277,301r-338,0v3,-69,5,-139,6,-208v1,-69,0,-139,-1,-208v0,-35,0,-69,-1,-104v-1,-35,-3,-69,-4,-104v150,4,315,-14,426,30v50,20,91,49,123,92xm404,-302v-30,-63,-67,-95,-137,-104v-1,35,-1,70,-1,104v0,34,0,68,1,102v69,-8,110,-46,137,-102","w":677},"e":{"d":"261,-233r2,74v76,5,148,2,217,-8r-37,167r-435,0v5,-104,6,-208,6,-312v0,-104,-2,-208,-6,-312r437,0r37,166v-70,-11,-142,-12,-219,-7r-1,73v76,5,148,4,217,-8r-37,167r-181,0","w":522},"f":{"d":"515,-443v-74,-14,-160,-22,-250,-20r-2,81r202,0r28,199v-69,-14,-146,-22,-229,-22r5,205r-259,0v4,-104,6,-208,6,-312v0,-104,-2,-208,-6,-312r477,0","w":555},"g":{"d":"660,-322v-17,101,-15,223,3,322r-324,0v-96,6,-139,-37,-186,-83v-57,-55,-141,-136,-117,-249v3,-12,7,-24,14,-37v85,-147,210,-232,399,-285r114,168v-99,40,-198,80,-265,152v-22,15,-9,50,4,64v36,37,63,65,121,65r2,-183","w":695},"h":{"d":"392,-424r-6,-200r260,0v-4,104,-6,208,-6,312v0,104,1,208,6,312r-260,0r6,-203r-124,0v0,33,1,67,2,101r3,102r-260,0v5,-104,7,-208,7,-312v0,-104,-3,-208,-7,-312r260,0r-3,100v0,0,-2,67,-2,100r124,0","w":696},"i":{"d":"13,0v4,-104,6,-208,6,-312v0,-104,-2,-208,-6,-312r260,0v-4,104,-7,208,-7,312v0,104,2,208,7,312r-260,0","w":286},"j":{"d":"491,-154v-32,65,-71,119,-131,154r-135,0v-23,-1,-45,-1,-68,-2v-23,-1,-45,-3,-68,-5r-65,-236v49,18,104,30,170,27v44,-2,61,-40,58,-94v-2,-33,-5,-67,-8,-100r-20,-214r269,0v-2,79,-4,159,-5,238v-1,79,0,156,3,232","w":517},"k":{"d":"287,-210r6,210r-260,0v15,-208,15,-416,0,-624r260,0r-6,260r112,-260r257,50r-157,270r194,254r-257,50","w":726},"l":{"d":"282,-287r1,67v86,2,157,-6,229,-20r-43,240r-444,0v16,-208,14,-416,0,-624r265,0v-3,79,-5,143,-6,194v-1,51,-2,98,-2,143","w":537},"m":{"d":"816,-624v18,223,53,432,109,624r-263,0r-45,-216r-141,216r-139,-224r-57,224r-236,0r154,-624r177,0r124,280v53,-87,102,-181,146,-280r171,0","w":969},"n":{"d":"722,-624v-18,203,-8,418,0,624r-171,0r-279,-287r-2,215v0,24,2,48,3,72r-239,0v27,-196,25,-427,0,-624r179,0r260,232r-11,-232r260,0","w":757},"o":{"d":"710,-312v0,192,-142,312,-338,312v-196,0,-339,-120,-339,-312v0,-193,143,-312,339,-312v197,0,338,119,338,312xm473,-319v0,-54,-47,-100,-101,-100v-53,0,-100,47,-100,100v0,54,46,101,100,101v55,0,101,-47,101,-101","w":744},"p":{"d":"601,-432v17,104,-33,191,-79,248v-19,23,-48,39,-87,41v-55,4,-106,3,-155,-3v1,25,3,50,4,74v1,24,2,48,5,72r-260,0v5,-53,9,-107,11,-160v2,-53,3,-107,3,-161v0,-50,-1,-100,-3,-151v-2,-51,-6,-101,-11,-152r260,0v71,3,130,-1,169,25v54,37,100,76,130,132v6,11,10,22,13,35xm276,-279v58,-18,103,-57,122,-115v7,-21,-4,-36,-15,-46v-31,-28,-63,-47,-102,-65v-2,38,-4,75,-5,113v-1,38,-1,76,0,113","w":634},"q":{"d":"710,-312v0,111,-45,192,-111,242r87,63r-142,124r-86,-125v-233,43,-425,-84,-425,-304v0,-193,143,-312,339,-312v197,0,340,119,338,312xm473,-319v0,-54,-47,-100,-101,-100v-53,0,-100,47,-100,100v0,54,46,101,100,101v55,0,101,-47,101,-101","w":744},"r":{"d":"19,0v19,-201,4,-432,-12,-624r294,0v13,0,26,1,39,2v51,2,123,2,150,20v59,39,116,78,136,149v22,79,-39,140,-76,185v-12,13,-26,23,-44,30v30,81,78,162,137,219r-219,31v-62,-67,-113,-144,-167,-218r-5,128r-5,78r-228,0xm254,-282v54,-17,94,-52,116,-102v7,-15,-6,-23,-15,-30v-27,-26,-61,-37,-97,-52r-4,135r0,49","w":700},"s":{"d":"401,-531v-43,28,-89,55,-89,119v0,26,10,45,23,60v50,57,107,116,85,212v-21,93,-105,135,-192,167r-208,-113v39,-11,69,-27,90,-44v53,-43,22,-126,-9,-164v-33,-41,-76,-77,-76,-146v0,-49,27,-85,53,-114v36,-40,88,-63,147,-83","w":444},"t":{"d":"182,-419v-55,2,-107,1,-154,14r19,-219r549,0r-46,215v-45,-1,-83,-12,-128,-12r1,247r5,174r-251,0r5,-177v1,-41,1,-83,1,-123v0,-40,0,-80,-1,-119","w":624},"u":{"d":"33,-66v36,-172,38,-379,13,-558r255,0v-3,140,-3,282,-35,394v36,34,94,59,166,50v-3,-48,-5,-97,-6,-146v-1,-49,-2,-99,-1,-149v0,-25,0,-50,1,-75v1,-25,3,-49,4,-74r252,0v-4,104,-6,208,-6,312v0,104,1,208,6,312r-231,0r-11,-86r-46,62v-8,11,-16,20,-24,29v-132,1,-242,-27,-337,-71","w":714},"v":{"d":"727,-568v-78,182,-148,371,-205,568r-257,0r-61,-136r-64,-136r-68,-136r-72,-136r241,-80r142,305r99,-332","w":799},"w":{"d":"810,0r-165,0r-139,-253r-132,253r-186,0v-27,-93,-56,-186,-87,-279v-31,-93,-64,-187,-100,-282r249,-63r76,278r180,-278r167,251r81,-251r230,37","w":1082},"x":{"d":"413,0r-76,-101r-76,101r-263,-51r102,-121r95,-119r-191,-256r235,-77v15,24,30,48,47,72r51,73r51,-73r48,-72r234,77r-191,256r95,119r102,121","w":746},"y":{"d":"355,0r-256,0r91,-208r-189,-416r237,0r76,188r71,-188r215,0","w":659},"z":{"d":"396,-223r224,-11r-59,234r-558,0r236,-408r-236,20r62,-236r573,0","w":699},"{":{"d":"245,118v0,38,34,68,76,65r0,17r-164,0v-35,0,-66,-30,-65,-66r0,-357v-1,-39,-31,-70,-77,-64r0,-17v46,5,77,-25,77,-65r0,-366v-1,-35,30,-66,65,-65r164,0r0,17v-44,-5,-75,26,-76,64r0,367v0,25,-16,47,-33,56v17,9,33,32,33,57r0,357","w":337},"|":{"d":"17,200r0,-1000r136,0r0,1000r-136,0","w":165},"}":{"d":"246,-369v1,39,31,70,77,65r0,17v-46,-5,-77,25,-77,64r0,357v1,35,-30,65,-65,65r-164,1r0,-17v44,4,76,-27,76,-65r0,-357v0,-25,16,-48,33,-57v-17,-10,-33,-31,-33,-56r0,-367v-1,-37,-33,-69,-76,-64r0,-17r164,0v35,-1,66,30,65,65r0,366","w":337},"~":{"d":"178,-372v69,-20,117,-65,190,-59v80,6,107,51,137,103r-78,75v-19,-29,-54,-66,-105,-53v-55,14,-88,55,-155,55v-76,0,-113,-43,-143,-97r69,-65v26,16,43,42,85,41","w":529},"\u00c4":{"d":"599,0r-46,-113r-236,0r-41,113r-265,0r280,-709r258,0r335,709r-285,0xm427,-416r-41,112r88,0xm304,-724r-113,-112r113,-113r112,113xm544,-724r-112,-112r112,-113r113,113","w":961},"\u00c5":{"d":"599,0r-46,-113r-236,0r-41,113r-265,0r280,-709r258,0r335,709r-285,0xm427,-416r-41,112r88,0xm585,-836v0,72,-85,122,-165,122v-80,0,-165,-50,-165,-122v0,-73,85,-122,165,-122v80,0,165,49,165,122xm472,-839v0,-25,-24,-45,-49,-45v-25,0,-49,20,-49,45v0,25,24,45,49,45v25,0,49,-20,49,-45","w":961},"\u00c7":{"d":"341,165r-215,-1r12,-76v11,-80,97,-124,163,-154v38,-17,76,-27,116,-40xm444,15v-119,-19,-217,-65,-298,-134v-155,-132,-160,-339,-8,-475v75,-67,168,-114,281,-137r124,206v-55,11,-100,32,-135,61v-70,56,-69,140,2,196v36,29,80,50,135,61","w":571},"\u00c9":{"d":"297,-265r2,84v86,5,168,4,246,-9r-42,190r-494,0v3,-59,4,-119,5,-178v1,-59,2,-118,2,-177v0,-59,-1,-118,-2,-177v-1,-59,-3,-118,-5,-177r497,0r42,189v-79,-13,-163,-15,-249,-8r-1,83v86,5,168,4,246,-9r-42,189r-205,0xm481,-876v-52,66,-115,117,-194,150r-118,-24r159,-182","w":593},"\u00d1":{"d":"788,-709v-21,234,-8,471,0,709r-195,0r-317,-326r-2,244v0,27,2,55,3,82r-271,0v30,-222,28,-485,0,-709r203,0r295,264r-12,-264r296,0xm338,-842v69,-20,117,-65,190,-59v80,6,107,51,137,103r-78,75v-19,-29,-54,-66,-105,-53v-55,14,-88,55,-155,55v-76,0,-113,-43,-143,-97r69,-65v26,16,43,42,85,41","w":860},"\u00d6":{"d":"778,-355v0,218,-161,355,-384,355v-223,0,-385,-136,-385,-355v0,-217,162,-354,385,-354v223,0,384,136,384,354xm508,-362v0,-61,-53,-114,-114,-114v-61,0,-114,53,-114,114v0,61,53,114,114,114v61,0,114,-53,114,-114xm304,-714r-113,-112r113,-113r112,113xm544,-714r-112,-112r112,-113r113,113"},"\u00dc":{"d":"8,-75v41,-196,42,-429,15,-634r290,0v-4,160,-2,322,-40,448v41,39,107,66,189,56v-4,-54,-7,-109,-8,-165v-1,-56,-3,-113,-1,-170r7,-169r286,0v-2,59,-4,118,-5,177v-1,59,-2,118,-2,177v0,59,0,118,1,177v1,59,3,119,6,178r-263,0r-12,-98r-60,80v-7,8,-13,17,-20,24v-150,1,-274,-32,-383,-81xm294,-724r-113,-112r113,-113r112,113xm534,-724r-112,-112r112,-113r113,113","w":811},"\u00e1":{"d":"527,0r-40,-99r-208,0r-36,99r-233,0r246,-624r227,0r295,624r-251,0xm376,-366r-36,98r77,0xm591,-786v-52,66,-115,117,-194,150r-118,-24r159,-182"},"\u00e0":{"d":"527,0r-40,-99r-208,0r-36,99r-233,0r246,-624r227,0r295,624r-251,0xm376,-366r-36,98r77,0xm367,-646v-79,-33,-143,-85,-194,-150r153,-56r159,182"},"\u00e2":{"d":"527,0r-40,-99r-208,0r-36,99r-233,0r246,-624r227,0r295,624r-251,0xm376,-366r-36,98r77,0xm477,-634r-106,-95r-102,93r-98,-29r127,-168r146,2r130,166"},"\u00e4":{"d":"527,0r-40,-99r-208,0r-36,99r-233,0r246,-624r227,0r295,624r-251,0xm376,-366r-36,98r77,0xm254,-634r-113,-112r113,-113r112,113xm494,-634r-112,-112r112,-113r113,113"},"\u00e3":{"d":"527,0r-40,-99r-208,0r-36,99r-233,0r246,-624r227,0r295,624r-251,0xm376,-366r-36,98r77,0xm268,-762v69,-20,117,-65,190,-59v80,6,107,51,137,103r-78,75v-19,-29,-54,-66,-105,-53v-55,14,-88,55,-155,55v-76,0,-113,-43,-143,-97r69,-65v26,16,43,42,85,41"},"\u00e5":{"d":"527,0r-40,-99r-208,0r-36,99r-233,0r246,-624r227,0r295,624r-251,0xm376,-366r-36,98r77,0xm535,-756v0,72,-85,122,-165,122v-80,0,-165,-50,-165,-122v0,-73,85,-122,165,-122v80,0,165,49,165,122xm422,-759v0,-25,-24,-45,-49,-45v-25,0,-49,20,-49,45v0,25,24,45,49,45v25,0,49,-20,49,-45"},"\u00e7":{"d":"291,185r-215,-1r12,-76v11,-80,97,-124,163,-154v38,-17,76,-27,116,-40xm313,-322v0,79,88,125,167,140r-89,195v-105,-17,-192,-58,-263,-118v-136,-116,-139,-299,-6,-419v66,-60,148,-100,247,-119r109,181v-48,10,-87,28,-118,54v-31,26,-47,54,-47,86","w":502},"\u00e9":{"d":"261,-233r2,74v76,5,148,2,217,-8r-37,167r-435,0v5,-104,6,-208,6,-312v0,-104,-2,-208,-6,-312r437,0r37,166v-70,-11,-142,-12,-219,-7r-1,73v76,5,148,4,217,-8r-37,167r-181,0xm471,-786v-52,66,-115,117,-194,150r-118,-24r159,-182","w":522},"\u00e8":{"d":"261,-233r2,74v76,5,148,2,217,-8r-37,167r-435,0v5,-104,6,-208,6,-312v0,-104,-2,-208,-6,-312r437,0r37,166v-70,-11,-142,-12,-219,-7r-1,73v76,5,148,4,217,-8r-37,167r-181,0xm227,-636v-79,-33,-143,-85,-194,-150r153,-56r159,182","w":522},"\u00ea":{"d":"261,-233r2,74v76,5,148,2,217,-8r-37,167r-435,0v5,-104,6,-208,6,-312v0,-104,-2,-208,-6,-312r437,0r37,166v-70,-11,-142,-12,-219,-7r-1,73v76,5,148,4,217,-8r-37,167r-181,0xm347,-634r-106,-95r-102,93r-98,-29r127,-168r146,2r130,166","w":522},"\u00eb":{"d":"261,-233r2,74v76,5,148,2,217,-8r-37,167r-435,0v5,-104,6,-208,6,-312v0,-104,-2,-208,-6,-312r437,0r37,166v-70,-11,-142,-12,-219,-7r-1,73v76,5,148,4,217,-8r-37,167r-181,0xm114,-634r-113,-112r113,-113r112,113xm354,-634r-112,-112r112,-113r113,113","w":522},"\u00ed":{"d":"13,0v4,-104,6,-208,6,-312v0,-104,-2,-208,-6,-312r260,0v-4,104,-7,208,-7,312v0,104,2,208,7,312r-260,0xm361,-786v-52,66,-115,117,-194,150r-118,-24r159,-182","w":286},"\u00ec":{"d":"13,0v4,-104,6,-208,6,-312v0,-104,-2,-208,-6,-312r260,0v-4,104,-7,208,-7,312v0,104,2,208,7,312r-260,0xm177,-636v-79,-33,-143,-84,-193,-150r152,-56r159,182","w":286},"\u00ee":{"d":"13,0v4,-104,6,-208,6,-312v0,-104,-2,-208,-6,-312r260,0v-4,104,-7,208,-7,312v0,104,2,208,7,312r-260,0xm247,-634r-106,-95r-102,93r-98,-29r127,-168r146,2r130,166","w":286},"\u00ef":{"d":"13,0v4,-104,6,-208,6,-312v0,-104,-2,-208,-6,-312r260,0v-4,104,-7,208,-7,312v0,104,2,208,7,312r-260,0xm24,-634r-113,-112r113,-113r112,113xm264,-634r-112,-112r112,-113r113,113","w":286},"\u00f1":{"d":"722,-624v-18,203,-8,418,0,624r-171,0r-279,-287r-2,215v0,24,2,48,3,72r-239,0v27,-196,25,-427,0,-624r179,0r260,232r-11,-232r260,0xm268,-762v69,-20,117,-65,190,-59v80,6,107,51,137,103r-78,75v-19,-29,-54,-66,-105,-53v-55,14,-88,55,-155,55v-76,0,-113,-43,-143,-97r69,-65v26,16,43,42,85,41","w":757},"\u00f3":{"d":"710,-312v0,192,-142,312,-338,312v-196,0,-339,-120,-339,-312v0,-193,143,-312,339,-312v197,0,338,119,338,312xm473,-319v0,-54,-47,-100,-101,-100v-53,0,-100,47,-100,100v0,54,46,101,100,101v55,0,101,-47,101,-101xm601,-786v-52,66,-115,117,-194,150r-118,-24r159,-182","w":744},"\u00f2":{"d":"710,-312v0,192,-142,312,-338,312v-196,0,-339,-120,-339,-312v0,-193,143,-312,339,-312v197,0,338,119,338,312xm473,-319v0,-54,-47,-100,-101,-100v-53,0,-100,47,-100,100v0,54,46,101,100,101v55,0,101,-47,101,-101xm357,-636v-79,-33,-143,-85,-194,-150r153,-56r159,182","w":744},"\u00f4":{"d":"710,-312v0,192,-142,312,-338,312v-196,0,-339,-120,-339,-312v0,-193,143,-312,339,-312v197,0,338,119,338,312xm473,-319v0,-54,-47,-100,-101,-100v-53,0,-100,47,-100,100v0,54,46,101,100,101v55,0,101,-47,101,-101xm477,-624r-106,-95r-102,93r-98,-29r127,-168r146,2r130,166","w":744},"\u00f6":{"d":"710,-312v0,192,-142,312,-338,312v-196,0,-339,-120,-339,-312v0,-193,143,-312,339,-312v197,0,338,119,338,312xm473,-319v0,-54,-47,-100,-101,-100v-53,0,-100,47,-100,100v0,54,46,101,100,101v55,0,101,-47,101,-101xm254,-624r-113,-112r113,-113r112,113xm494,-624r-112,-112r112,-113r113,113","w":744},"\u00f5":{"d":"710,-312v0,192,-142,312,-338,312v-196,0,-339,-120,-339,-312v0,-193,143,-312,339,-312v197,0,338,119,338,312xm473,-319v0,-54,-47,-100,-101,-100v-53,0,-100,47,-100,100v0,54,46,101,100,101v55,0,101,-47,101,-101xm278,-752v69,-20,117,-65,190,-59v80,6,107,51,137,103r-78,75v-19,-29,-54,-66,-105,-53v-55,14,-88,55,-155,55v-76,0,-113,-43,-143,-97r69,-65v26,16,43,42,85,41","w":744},"\u00fa":{"d":"33,-66v36,-172,38,-379,13,-558r255,0v-3,140,-3,282,-35,394v36,34,94,59,166,50v-3,-48,-5,-97,-6,-146v-1,-49,-2,-99,-1,-149v0,-25,0,-50,1,-75v1,-25,3,-49,4,-74r252,0v-4,104,-6,208,-6,312v0,104,1,208,6,312r-231,0r-11,-86r-46,62v-8,11,-16,20,-24,29v-132,1,-242,-27,-337,-71xm571,-786v-52,66,-115,117,-194,150r-118,-24r159,-182","w":714},"\u00f9":{"d":"33,-66v36,-172,38,-379,13,-558r255,0v-3,140,-3,282,-35,394v36,34,94,59,166,50v-3,-48,-5,-97,-6,-146v-1,-49,-2,-99,-1,-149v0,-25,0,-50,1,-75v1,-25,3,-49,4,-74r252,0v-4,104,-6,208,-6,312v0,104,1,208,6,312r-231,0r-11,-86r-46,62v-8,11,-16,20,-24,29v-132,1,-242,-27,-337,-71xm357,-636v-79,-33,-143,-85,-194,-150r153,-56r159,182","w":714},"\u00fb":{"d":"33,-66v36,-172,38,-379,13,-558r255,0v-3,140,-3,282,-35,394v36,34,94,59,166,50v-3,-48,-5,-97,-6,-146v-1,-49,-2,-99,-1,-149v0,-25,0,-50,1,-75v1,-25,3,-49,4,-74r252,0v-4,104,-6,208,-6,312v0,104,1,208,6,312r-231,0r-11,-86r-46,62v-8,11,-16,20,-24,29v-132,1,-242,-27,-337,-71xm467,-634r-106,-95r-102,93r-98,-29r127,-168r146,2r130,166","w":714},"\u00fc":{"d":"33,-66v36,-172,38,-379,13,-558r255,0v-3,140,-3,282,-35,394v36,34,94,59,166,50v-3,-48,-5,-97,-6,-146v-1,-49,-2,-99,-1,-149v0,-25,0,-50,1,-75v1,-25,3,-49,4,-74r252,0v-4,104,-6,208,-6,312v0,104,1,208,6,312r-231,0r-11,-86r-46,62v-8,11,-16,20,-24,29v-132,1,-242,-27,-337,-71xm244,-634r-113,-112r113,-113r112,113xm484,-634r-112,-112r112,-113r113,113","w":714},"\u00a2":{"d":"279,-360v0,69,79,111,148,124r-79,175r-56,-13r0,74r-140,0r0,-137v-69,-46,-132,-118,-132,-219v0,-102,63,-173,132,-219r0,-134r140,0r0,71r37,-9r96,162v-70,13,-146,54,-146,125","w":447},"\u00a3":{"d":"377,-237v0,88,-60,130,-123,162r0,75r-140,0r0,-103r-96,-53v66,-17,123,-54,102,-130v-20,-71,-98,-98,-98,-185v0,-55,37,-91,68,-121v7,-6,15,-11,24,-16r0,-101r140,0r0,94r104,63v-43,27,-96,66,-74,135v3,9,8,17,15,24v39,44,78,88,78,156","w":395},"\u00a7":{"d":"559,-285v0,82,-45,132,-108,158v34,37,69,76,69,141v0,136,-107,199,-258,197v-67,0,-119,-12,-157,-36v-38,-24,-57,-54,-57,-89v0,-60,80,-108,133,-68v25,19,35,70,58,94v9,9,26,13,52,13v44,1,77,-23,77,-64v0,-72,-79,-82,-135,-105v-69,-28,-157,-64,-195,-104v-28,-29,-43,-68,-43,-119v1,-89,48,-149,114,-181v-38,-29,-70,-61,-70,-117v0,-113,115,-176,248,-176v69,0,122,11,158,32v36,21,54,49,54,83v0,39,-31,73,-69,72v-45,-1,-60,-22,-77,-55v-17,-36,-34,-54,-83,-55v-40,-1,-70,20,-70,57v0,66,79,80,131,100r56,22v92,32,172,80,172,200xm351,-189v50,0,85,-48,55,-86v-44,-54,-146,-92,-219,-100v-45,-5,-81,50,-51,88v30,38,108,68,149,83v28,11,51,15,66,15","w":557},"\u00b6":{"d":"219,-774v19,-4,43,1,63,-2r0,941r-75,0r0,-450v-108,-16,-202,-122,-202,-243v0,-135,99,-225,214,-246xm402,-699r0,864r-74,0r0,-940r119,0r0,76r-45,0","w":431},"\u00df":{"d":"718,-439v1,45,-24,73,-24,114v0,17,6,26,17,38v40,42,90,117,52,191v-35,66,-112,90,-183,117r-186,-103r7,-12v37,-10,81,-30,79,-75v-3,-88,-106,-106,-83,-206v13,-58,61,-91,112,-115v-19,-24,-68,-35,-101,-16v-21,12,-38,34,-41,65v-12,150,6,296,13,441r-278,80r14,-317r-72,8r-7,-121r79,5r-8,-193v-2,-51,26,-91,81,-128v99,-66,271,-67,369,-7v73,45,158,124,160,234","w":815},"\u00ae":{"d":"487,-578v0,119,-111,216,-227,216v-119,0,-233,-92,-233,-215v0,-124,116,-223,237,-223v117,0,223,105,223,222xm453,-578v0,-102,-92,-193,-193,-193v-103,0,-201,82,-201,188v0,109,94,191,201,191v99,0,193,-85,193,-186xm348,-639v0,33,-24,48,-48,58v33,17,32,75,49,110r-38,0v-8,-28,-17,-59,-27,-83v-10,-23,-36,-15,-63,-16r0,99r-35,0r0,-223v70,2,161,-16,162,55xm308,-635v-1,-38,-49,-28,-87,-29r0,64r49,0v18,1,39,-17,38,-35","w":517},"\u00a9":{"d":"756,-331v0,171,-102,287,-228,341v-87,37,-196,38,-283,1v-126,-54,-229,-168,-229,-342v0,-173,101,-289,228,-343v90,-38,193,-38,283,0v128,54,229,169,229,343xm671,-214v53,-121,6,-265,-67,-337v-72,-71,-216,-120,-337,-67v-106,46,-191,142,-191,287v0,145,87,241,192,286v73,31,163,30,236,-1v74,-31,135,-94,167,-168xm564,-221v-39,64,-88,106,-179,108v-122,3,-218,-94,-218,-215v0,-158,174,-269,320,-188v22,13,36,-2,40,-25r26,0r3,164r-28,0v-18,-72,-53,-132,-128,-132v-81,0,-102,78,-102,175v0,59,10,105,29,136v19,31,47,46,82,46v61,0,98,-40,128,-86","w":773},"\u2122":{"d":"116,-727r0,240r-58,0r0,-240r-32,0r0,-21r123,0r0,21r-33,0xm289,-487r0,-217r-52,118r-55,-121r0,220r-19,0r0,-260r60,0r32,75r34,-75r58,0r0,260r-58,0","w":373},"\u00b4":{"d":"331,-836v-52,66,-115,117,-194,150r-118,-24r159,-182","w":331},"\u00a8":{"d":"144,-614r-113,-112r113,-113r112,113xm384,-614r-112,-112r112,-113r113,113","w":521},"\u00c6":{"d":"1174,-520v-79,-13,-163,-15,-249,-8r-1,83v86,5,168,4,246,-9r-42,189r-204,0r1,84v86,5,167,4,246,-8r-42,189r-484,0r2,-112r-237,0r-89,112r-265,0r586,-709r490,0xm562,-304r89,0r1,-112","w":1230},"\u00d8":{"d":"807,-355v2,218,-161,355,-384,355v-98,0,-179,-25,-239,-65r-69,71r-54,-53r68,-64v-54,-57,-91,-138,-91,-244v-2,-217,162,-357,385,-354v98,1,179,24,239,65r68,-72r28,26r26,28r-67,64v55,57,90,137,90,243xm372,-260v92,47,203,-50,153,-152xm483,-459v-16,-10,-35,-17,-60,-17v-71,-1,-131,69,-109,146v3,10,7,19,12,28"},"\u00b1":{"d":"-7,6r0,-136r460,0r0,136r-460,0xm291,-314r0,162r-136,0r0,-162r-162,0r0,-136r162,0r0,-162r136,0r0,162r162,0r0,136r-162,0","w":445},"\u00a5":{"d":"577,-360r109,0r-31,61r-101,0r-19,47r151,0r-31,61r-121,0r16,191r-320,0r15,-191r-182,0r31,-61r147,0r-21,-47r-157,0r31,-61r99,0r-159,-349r269,0r87,214r81,-214r244,0","w":749},"\u00b5":{"d":"621,-151v-13,80,-59,160,-150,161v-60,0,-91,-36,-94,-94v-24,56,-62,91,-135,92v-64,0,-105,-32,-111,-89v-6,39,-10,72,-13,101v-6,55,-8,136,-33,168v-10,13,-28,20,-53,20v-41,0,-69,-29,-66,-70v7,-83,53,-177,72,-270v4,-17,9,-34,13,-53r52,-247r164,0r-63,295v-7,40,6,73,43,73v19,0,34,-10,45,-28v11,-18,21,-46,30,-85r56,-255r163,0r-54,251v-9,35,-6,81,34,80v44,-1,44,-48,70,-67v13,-9,33,1,30,17","w":620},"\u00aa":{"d":"238,-482r-19,-46r-94,0r-16,46r-106,0r112,-284r103,0r134,284r-114,0xm169,-649r-16,45r35,0","w":362},"\u00ba":{"d":"301,-612v0,86,-65,142,-153,142v-89,0,-153,-55,-153,-142v0,-88,63,-142,153,-142v89,0,153,55,153,142xm193,-615v0,-25,-20,-45,-45,-45v-25,0,-46,20,-46,45v0,25,21,46,46,46v25,0,45,-21,45,-46","w":338},"\u00e6":{"d":"814,-465r-1,73v76,5,148,4,217,-8r-37,167r-180,0r1,74v75,6,147,2,216,-7r-36,166r-426,0r1,-99r-208,0r-79,99r-233,0r516,-624r431,0r37,166v-70,-11,-142,-12,-219,-7xm495,-268r78,0r1,-98","w":1082},"\u00f8":{"d":"710,-312v2,192,-142,314,-338,312v-86,-1,-158,-21,-210,-57r-61,62v-17,-14,-31,-32,-47,-46r60,-57v-49,-50,-81,-120,-81,-214v-2,-193,143,-314,339,-312v87,1,157,21,211,57r59,-63r48,47r-44,42r-15,15v48,50,79,120,79,214xm327,-229v81,42,180,-44,135,-134xm425,-404v-15,-10,-30,-15,-53,-15v-73,-4,-128,87,-85,153","w":744},"\u00bf":{"d":"314,-56v-22,60,22,103,46,142r-191,105v-52,-28,-102,-56,-127,-112v-14,-32,-4,-70,10,-96v22,-42,52,-109,23,-164v-13,-26,-33,-46,-49,-69v42,-23,80,-53,136,-60r-131,-95r132,-135r165,103r-109,122v88,0,148,40,152,125v2,57,-41,92,-57,134","w":379},"\u00a1":{"d":"44,187r-2,-382r209,-80r61,400xm181,-290r-163,-119r133,-135r164,103","w":327},"\u00ac":{"d":"341,-236r0,-116r-331,0r0,-46r375,0v0,2,-1,5,2,4r0,158r-46,0","w":400},"\u00ab":{"d":"115,-350r93,102r-29,98r-168,-127r2,-146r166,-130r31,97xm305,-350r93,102r-29,98r-168,-127r2,-146r166,-130r31,97","w":408},"\u00bb":{"d":"41,-150r-29,-98r93,-102r-95,-106r31,-97r166,130r2,146xm231,-150r-29,-98r93,-102r-95,-106r31,-97r166,130r2,146","w":408},"\u2026":{"d":"166,22r-164,-103r134,-151r163,119xm476,22r-164,-103r134,-151r163,119xm786,22r-164,-103r134,-151r163,119","w":916},"\u00c0":{"d":"599,0r-46,-113r-236,0r-41,113r-265,0r280,-709r258,0r335,709r-285,0xm427,-416r-41,112r88,0xm427,-736v-79,-33,-143,-85,-194,-150r153,-56r159,182","w":961},"\u00c3":{"d":"599,0r-46,-113r-236,0r-41,113r-265,0r280,-709r258,0r335,709r-285,0xm427,-416r-41,112r88,0xm328,-842v69,-20,117,-65,190,-59v80,6,107,51,137,103r-78,75v-19,-29,-54,-66,-105,-53v-55,14,-88,55,-155,55v-76,0,-113,-43,-143,-97r69,-65v26,16,43,42,85,41","w":961},"\u00d5":{"d":"778,-355v0,218,-161,355,-384,355v-223,0,-385,-136,-385,-355v0,-217,162,-354,385,-354v223,0,384,136,384,354xm508,-362v0,-61,-53,-114,-114,-114v-61,0,-114,53,-114,114v0,61,53,114,114,114v61,0,114,-53,114,-114xm328,-842v69,-20,117,-65,190,-59v80,6,107,51,137,103r-78,75v-19,-29,-54,-66,-105,-53v-55,14,-88,55,-155,55v-76,0,-113,-43,-143,-97r69,-65v26,16,43,42,85,41"},"\u0152":{"d":"550,-697r-1,-12r497,0r42,189v-79,-13,-163,-15,-249,-8r-1,83v86,5,168,4,246,-9r-42,189r-204,0r1,84v85,5,169,4,246,-8r-42,189r-494,0r1,-12v-34,8,-72,12,-114,12v-223,3,-384,-136,-384,-355v0,-256,228,-400,498,-342xm550,-362v0,-61,-53,-114,-114,-114v-61,0,-114,53,-114,114v0,61,53,114,114,114v61,0,114,-53,114,-114","w":1140},"\u0153":{"w":500},"\u2014":{"d":"-17,-274r0,-136r920,0r0,136r-920,0","w":887},"\u201c":{"d":"231,-551r-215,0r12,-77v11,-79,97,-124,163,-154v38,-17,76,-27,116,-40xm481,-551r-215,0r12,-77v11,-79,97,-124,163,-154v38,-17,76,-27,116,-40","w":557},"\u201d":{"d":"294,-738v-11,79,-97,124,-163,154v-38,17,-76,27,-116,40r76,-271r215,0xm544,-738v-11,79,-97,124,-163,154v-38,17,-76,27,-116,40r76,-271r215,0","w":557},"\u2018":{"d":"231,-561r-215,0r12,-77v11,-79,97,-124,163,-154v38,-17,76,-27,116,-40","w":320},"\u2019":{"d":"294,-738v-11,79,-97,124,-163,154v-38,17,-76,27,-116,40r76,-271r215,0","w":320},"\u00f7":{"d":"297,-171v0,40,-35,75,-75,75v-40,0,-75,-35,-75,-75v0,-40,35,-75,75,-75v40,0,75,35,75,75xm-7,-274r0,-136r460,0r0,136r-460,0xm297,-511v0,40,-35,75,-75,75v-40,0,-75,-35,-75,-75v0,-40,35,-75,75,-75v40,0,75,35,75,75","w":445},"\u00ff":{"d":"355,0r-256,0r91,-208r-189,-416r237,0r76,188r71,-188r215,0xm224,-634r-113,-112r113,-113r112,113xm464,-634r-112,-112r112,-113r113,113","w":659},"\u0178":{"d":"403,0r-291,0r104,-236r-215,-473r269,0r87,214r81,-214r244,0xm284,-724r-113,-112r113,-113r112,113xm524,-724r-112,-112r112,-113r113,113","w":749},"\u00a4":{"d":"662,-97v-55,58,-123,105,-232,106v-153,2,-287,-121,-319,-249r-80,0r54,-72r13,0r-1,-33r-66,0r54,-72r19,0v28,-135,150,-272,318,-268v103,3,186,49,237,108r-124,90v-44,-58,-142,-73,-205,-19v-28,24,-50,52,-62,89r336,0r-53,72r-295,0r2,33r346,0r-53,72r-272,0v27,57,81,107,157,104v44,-2,76,-23,101,-51","w":693},"\u2039":{"d":"120,-350r93,102r-29,98r-168,-127r2,-146r166,-130r31,97","w":230},"\u203a":{"d":"46,-150r-29,-98r93,-102r-95,-106r31,-97r166,130r2,146","w":230},"\u201a":{"d":"294,-62v-11,79,-97,123,-163,153v-38,17,-76,27,-116,40r76,-270r215,0","w":320},"\u201e":{"d":"285,-62v-11,79,-97,123,-163,153v-38,17,-76,27,-116,40r76,-270r215,0xm525,-62v-11,79,-97,123,-163,153v-38,17,-76,27,-116,40r76,-270r215,0","w":543},"\u00c2":{"d":"599,0r-46,-113r-236,0r-41,113r-265,0r280,-709r258,0r335,709r-285,0xm427,-416r-41,112r88,0xm527,-724r-106,-95r-102,93r-98,-29r127,-168r146,2r130,166","w":961},"\u00ca":{"d":"297,-265r2,84v86,5,168,4,246,-9r-42,190r-494,0v3,-59,4,-119,5,-178v1,-59,2,-118,2,-177v0,-59,-1,-118,-2,-177v-1,-59,-3,-118,-5,-177r497,0r42,189v-79,-13,-163,-15,-249,-8r-1,83v86,5,168,4,246,-9r-42,189r-205,0xm357,-724r-106,-95r-102,93r-98,-29r127,-168r146,2r130,166","w":593},"\u00c1":{"d":"599,0r-46,-113r-236,0r-41,113r-265,0r280,-709r258,0r335,709r-285,0xm427,-416r-41,112r88,0xm641,-876v-52,66,-115,117,-194,150r-118,-24r159,-182","w":961},"\u00cb":{"d":"297,-265r2,84v86,5,168,4,246,-9r-42,190r-494,0v3,-59,4,-119,5,-178v1,-59,2,-118,2,-177v0,-59,-1,-118,-2,-177v-1,-59,-3,-118,-5,-177r497,0r42,189v-79,-13,-163,-15,-249,-8r-1,83v86,5,168,4,246,-9r-42,189r-205,0xm134,-724r-113,-112r113,-113r112,113xm374,-724r-112,-112r112,-113r113,113","w":593},"\u00c8":{"d":"297,-265r2,84v86,5,168,4,246,-9r-42,190r-494,0v3,-59,4,-119,5,-178v1,-59,2,-118,2,-177v0,-59,-1,-118,-2,-177v-1,-59,-3,-118,-5,-177r497,0r42,189v-79,-13,-163,-15,-249,-8r-1,83v86,5,168,4,246,-9r-42,189r-205,0xm267,-736v-79,-33,-143,-85,-194,-150r153,-56r159,182","w":593},"\u00cd":{"d":"15,0v2,-59,4,-119,5,-178v1,-59,2,-118,2,-177v0,-59,-1,-118,-2,-177v-1,-59,-3,-118,-5,-177r295,0v-2,59,-4,118,-5,177v-1,59,-2,118,-2,177v0,59,0,118,1,177v1,59,3,119,6,178r-295,0xm391,-876v-52,66,-115,117,-194,150r-118,-24r159,-182","w":325},"\u00ce":{"d":"15,0v2,-59,4,-119,5,-178v1,-59,2,-118,2,-177v0,-59,-1,-118,-2,-177v-1,-59,-3,-118,-5,-177r295,0v-2,59,-4,118,-5,177v-1,59,-2,118,-2,177v0,59,0,118,1,177v1,59,3,119,6,178r-295,0xm277,-724r-106,-95r-102,93r-98,-29r127,-168r146,2r130,166","w":325},"\u00cf":{"d":"15,0v2,-59,4,-119,5,-178v1,-59,2,-118,2,-177v0,-59,-1,-118,-2,-177v-1,-59,-3,-118,-5,-177r295,0v-2,59,-4,118,-5,177v-1,59,-2,118,-2,177v0,59,0,118,1,177v1,59,3,119,6,178r-295,0xm44,-724r-113,-112r113,-113r112,113xm284,-724r-112,-112r112,-113r113,113","w":325},"\u00cc":{"d":"15,0v2,-59,4,-119,5,-178v1,-59,2,-118,2,-177v0,-59,-1,-118,-2,-177v-1,-59,-3,-118,-5,-177r295,0v-2,59,-4,118,-5,177v-1,59,-2,118,-2,177v0,59,0,118,1,177v1,59,3,119,6,178r-295,0xm177,-736v-79,-33,-143,-84,-193,-150r152,-56r159,182","w":325},"\u00d3":{"d":"778,-355v0,218,-161,355,-384,355v-223,0,-385,-136,-385,-355v0,-217,162,-354,385,-354v223,0,384,136,384,354xm508,-362v0,-61,-53,-114,-114,-114v-61,0,-114,53,-114,114v0,61,53,114,114,114v61,0,114,-53,114,-114xm651,-876v-52,66,-115,117,-194,150r-118,-24r159,-182"},"\u00d4":{"d":"778,-355v0,218,-161,355,-384,355v-223,0,-385,-136,-385,-355v0,-217,162,-354,385,-354v223,0,384,136,384,354xm508,-362v0,-61,-53,-114,-114,-114v-61,0,-114,53,-114,114v0,61,53,114,114,114v61,0,114,-53,114,-114xm527,-714r-106,-95r-102,93r-98,-29r127,-168r146,2r130,166"},"\u00d2":{"w":349},"\u00da":{"d":"8,-75v41,-196,42,-429,15,-634r290,0v-4,160,-2,322,-40,448v41,39,107,66,189,56v-4,-54,-7,-109,-8,-165v-1,-56,-3,-113,-1,-170r7,-169r286,0v-2,59,-4,118,-5,177v-1,59,-2,118,-2,177v0,59,0,118,1,177v1,59,3,119,6,178r-263,0r-12,-98r-60,80v-7,8,-13,17,-20,24v-150,1,-274,-32,-383,-81xm631,-876v-52,66,-115,117,-194,150r-118,-24r159,-182","w":811},"\u00db":{"d":"8,-75v41,-196,42,-429,15,-634r290,0v-4,160,-2,322,-40,448v41,39,107,66,189,56v-4,-54,-7,-109,-8,-165v-1,-56,-3,-113,-1,-170r7,-169r286,0v-2,59,-4,118,-5,177v-1,59,-2,118,-2,177v0,59,0,118,1,177v1,59,3,119,6,178r-263,0r-12,-98r-60,80v-7,8,-13,17,-20,24v-150,1,-274,-32,-383,-81xm527,-724r-106,-95r-102,93r-98,-29r127,-168r146,2r130,166","w":811},"\u00d9":{"d":"8,-75v41,-196,42,-429,15,-634r290,0v-4,160,-2,322,-40,448v41,39,107,66,189,56v-4,-54,-7,-109,-8,-165v-1,-56,-3,-113,-1,-170r7,-169r286,0v-2,59,-4,118,-5,177v-1,59,-2,118,-2,177v0,59,0,118,1,177v1,59,3,119,6,178r-263,0r-12,-98r-60,80v-7,8,-13,17,-20,24v-150,1,-274,-32,-383,-81xm417,-726v-79,-33,-143,-85,-194,-150r153,-56r159,182","w":811},"\u02dc":{"d":"357,-644r-106,-95r-102,93r-98,-29r127,-168r146,2r130,166","w":521},"\u02c6":{"d":"178,-782v69,-20,117,-65,190,-59v80,6,107,51,137,103r-78,75v-19,-29,-54,-66,-105,-53v-55,14,-88,55,-155,55v-76,0,-113,-43,-143,-97r69,-65v26,16,43,42,85,41","w":529},"\u00b8":{"d":"211,225r-214,-1r11,-76v27,-120,167,-157,279,-194","w":320},"\u00a6":{"d":"15,178r0,-460r136,0r0,460r-136,0xm15,-322r0,-460r136,0r0,460r-136,0","w":165},"\u00d0":{"d":"387,-709v207,0,341,89,391,247v35,113,22,222,-36,314v-51,81,-134,148,-260,148r-384,0r7,-289r-65,7r-2,-139r67,6r-3,-147v0,0,-2,-98,-4,-147r289,0xm536,-343v-33,-71,-88,-108,-177,-118r-1,54r70,-3r6,118r-76,-4r1,69v81,-10,147,-52,177,-116","w":835},"\u00f0":{"d":"92,-365r-1,-130r-5,-129v150,4,316,-15,426,30v110,45,190,143,190,293v0,165,-104,301,-278,301r-338,0r5,-127r1,-127r-57,6r-2,-122xm472,-302v-30,-61,-78,-95,-156,-104r-1,48r62,-3r5,104r-67,-3r1,60v70,-8,130,-45,156,-102","w":735},"\u00dd":{"w":349},"\u00fd":{"w":349},"\u00de":{"d":"34,0v25,-235,16,-475,-1,-709r289,0r-10,72r12,0v81,1,149,-1,192,28v61,40,116,87,148,150v57,112,-19,255,-76,321v-22,26,-53,44,-98,47v-62,4,-120,3,-177,-3r5,94r-284,0xm309,-245v66,-20,116,-65,140,-129v8,-23,-6,-43,-18,-55v-34,-32,-73,-54,-116,-73v-3,43,-4,85,-5,128v-1,43,-1,86,-1,129","w":716},"\u00fe":{"d":"30,0v21,-202,14,-423,-1,-624r254,0r-8,63r10,0v72,1,131,-2,169,25v63,44,124,88,144,168v17,69,-8,127,-33,175v-30,57,-57,107,-134,113v-55,4,-107,3,-156,-3r5,83r-250,0xm272,-216v59,-17,101,-58,124,-114v6,-45,-32,-62,-58,-80v-19,-14,-39,-22,-61,-32v-2,38,-3,76,-4,114v-1,38,-1,75,-1,112","w":630},"\u00d7":{"d":"338,-101r-115,-115r-115,115r-96,-96r115,-115r-115,-115r96,-96r115,115r115,-115r96,96r-115,115r115,115","w":445},"\u00b9":{"d":"85,-490r-1,-192r-74,-11r-1,-10r86,-35v28,-12,55,-23,81,-36r16,6r4,278r-111,0","w":205},"\u00b2":{"d":"120,-776v83,-9,138,61,101,128r-47,84v32,-2,65,-10,96,-19r-45,93r-212,0r85,-121v-43,-10,-85,-37,-85,-81v0,-58,53,-78,107,-84xm149,-676v0,-18,-15,-33,-33,-33v-18,0,-35,15,-34,33v0,17,16,32,34,32v18,0,33,-15,33,-32","w":283},"\u00b3":{"d":"156,-747v54,34,16,96,-18,125v23,15,47,36,42,73v-5,42,-55,54,-90,68r-81,-29v19,-14,51,-25,51,-54v0,-30,-28,-40,-48,-53r0,-18v28,-14,48,-30,51,-62v3,-35,-30,-43,-51,-59r72,-25v30,10,54,21,72,34","w":193},"\u00bd":{"w":500},"\u00bc":{"w":500},"\u00be":{"w":500},"\u2013":{"d":"-7,-274r0,-136r460,0r0,136r-460,0","w":445},"\u00ad":{"w":500},"\u2022":{"d":"232,-207r-205,-129r168,-189r203,149","w":426},"\u00af":{"w":349},"\u00b0":{"d":"234,-643v0,57,-50,107,-107,107v-58,0,-108,-50,-108,-107v0,-57,51,-107,108,-107v56,0,107,50,107,107xm193,-643v0,-35,-31,-67,-66,-67v-36,0,-67,31,-67,67v0,36,31,67,67,67v35,0,66,-31,66,-67","w":250},"\u00b7":{"w":349}}});
